<?xml version="1.0"?>
<opencv_storage>
<stage6>
  <maxWeakCount>5</maxWeakCount>
  <stageThreshold>-2.6745146512985229e-01</stageThreshold>
  <weakClassifiers>
    <_>
      <internalNodes>
        0 -1 263942 -3.4992977976799011e-02</internalNodes>
      <leafValues>
        6.9696968793869019e-01 -3.6363637447357178e-01</leafValues></_>
    <_>
      <internalNodes>
        0 -1 2463997 -4.3203748646192253e-05</internalNodes>
      <leafValues>
        5.6651145219802856e-01 -4.2814806103706360e-01</leafValues></_>
    <_>
      <internalNodes>
        0 -1 316661 -1.7527509480714798e-02</internalNodes>
      <leafValues>
        8.8763654232025146e-01 -3.8095182180404663e-01</leafValues></_>
    <_>
      <internalNodes>
        0 -1 2568598 -3.4000797313638031e-05</internalNodes>
      <leafValues>
        7.0096492767333984e-01 -5.5719524621963501e-01</leafValues></_>
    <_>
      <internalNodes>
        0 -1 105798 2.4445354938507080e-05</internalNodes>
      <leafValues>
        -5.9278547763824463e-01 4.8434641957283020e-01</leafValues></_></weakClassifiers></stage6>
</opencv_storage>
