<?xml version="1.0"?>
<opencv_storage>
<cascade>
  <stageType>BOOST</stageType>
  <featureType>HAAR</featureType>
  <height>48</height>
  <width>48</width>
  <stageParams>
    <boostType>GAB</boostType>
    <minHitRate>9.9500000476837158e-01</minHitRate>
    <maxFalseAlarm>5.0000000000000000e-01</maxFalseAlarm>
    <weightTrimRate>9.4999998807907104e-01</weightTrimRate>
    <maxDepth>1</maxDepth>
    <maxWeakCount>100</maxWeakCount></stageParams>
  <featureParams>
    <maxCatCount>0</maxCatCount>
    <featSize>1</featSize>
    <mode>BASIC</mode></featureParams>
  <stageNum>20</stageNum>
  <stages>
    <!-- stage 0 -->
    <_>
      <maxWeakCount>5</maxWeakCount>
      <stageThreshold>-1.1445267498493195e-01</stageThreshold>
      <weakClassifiers>
        <_>
          <internalNodes>
            0 -1 7 2.2100053727626801e-02</internalNodes>
          <leafValues>
            -4.3529412150382996e-01 7.7777779102325439e-01</leafValues></_>
        <_>
          <internalNodes>
            0 -1 16 -6.4645998645573854e-04</internalNodes>
          <leafValues>
            -6.9324439764022827e-01 4.6535807847976685e-01</leafValues></_>
        <_>
          <internalNodes>
            0 -1 63 1.8461113795638084e-03</internalNodes>
          <leafValues>
            -4.1876459121704102e-01 8.9539432525634766e-01</leafValues></_>
        <_>
          <internalNodes>
            0 -1 6 9.4362571835517883e-03</internalNodes>
          <leafValues>
            -4.3959790468215942e-01 7.5752991437911987e-01</leafValues></_>
        <_>
          <internalNodes>
            0 -1 75 -3.0834903009235859e-03</internalNodes>
          <leafValues>
            7.5240510702133179e-01 -4.8328194022178650e-01</leafValues></_></weakClassifiers></_>
    <!-- stage 1 -->
    <_>
      <maxWeakCount>6</maxWeakCount>
      <stageThreshold>-2.5537532567977905e-01</stageThreshold>
      <weakClassifiers>
        <_>
          <internalNodes>
            0 -1 14 7.7858456643298268e-04</internalNodes>
          <leafValues>
            -4.0000000596046448e-01 8.7096774578094482e-01</leafValues></_>
        <_>
          <internalNodes>
            0 -1 38 4.1927705751731992e-04</internalNodes>
          <leafValues>
            -3.2289591431617737e-01 8.3454060554504395e-01</leafValues></_>
        <_>
          <internalNodes>
            0 -1 46 2.6876213960349560e-03</internalNodes>
          <leafValues>
            -4.6290147304534912e-01 8.4324735403060913e-01</leafValues></_>
        <_>
          <internalNodes>
            0 -1 0 8.1336125731468201e-02</internalNodes>
          <leafValues>
            4.6301969885826111e-01 -9.3072164058685303e-01</leafValues></_>
        <_>
          <internalNodes>
            0 -1 2 -1.9382844911888242e-03</internalNodes>
          <leafValues>
            9.4535893201828003e-01 -3.5149762034416199e-01</leafValues></_>
        <_>
          <internalNodes>
            0 -1 35 -1.5583529602736235e-04</internalNodes>
          <leafValues>
            8.1889992952346802e-01 -4.4153597950935364e-01</leafValues></_></weakClassifiers></_>
    <!-- stage 2 -->
    <_>
      <maxWeakCount>3</maxWeakCount>
      <stageThreshold>-1.8744096159934998e-01</stageThreshold>
      <weakClassifiers>
        <_>
          <internalNodes>
            0 -1 26 3.0444934964179993e-03</internalNodes>
          <leafValues>
            -3.2653060555458069e-01 1.</leafValues></_>
        <_>
          <internalNodes>
            0 -1 42 -1.5752019826322794e-03</internalNodes>
          <leafValues>
            6.4925277233123779e-01 -3.9513325691223145e-01</leafValues></_>
        <_>
          <internalNodes>
            0 -1 69 -6.2564318068325520e-04</internalNodes>
          <leafValues>
            7.9704749584197998e-01 -5.1016306877136230e-01</leafValues></_></weakClassifiers></_>
    <!-- stage 3 -->
    <_>
      <maxWeakCount>3</maxWeakCount>
      <stageThreshold>-4.0384024381637573e-01</stageThreshold>
      <weakClassifiers>
        <_>
          <internalNodes>
            0 -1 85 2.9160204576328397e-05</internalNodes>
          <leafValues>
            -4.8051947355270386e-01 6.3636362552642822e-01</leafValues></_>
        <_>
          <internalNodes>
            0 -1 43 -7.4272637721151114e-04</internalNodes>
          <leafValues>
            6.4160424470901489e-01 -5.6099319458007813e-01</leafValues></_>
        <_>
          <internalNodes>
            0 -1 29 5.4133291996549815e-05</internalNodes>
          <leafValues>
            -4.7921067476272583e-01 7.9238981008529663e-01</leafValues></_></weakClassifiers></_>
    <!-- stage 4 -->
    <_>
      <maxWeakCount>5</maxWeakCount>
      <stageThreshold>-5.8146643638610840e-01</stageThreshold>
      <weakClassifiers>
        <_>
          <internalNodes>
            0 -1 62 1.5055144904181361e-03</internalNodes>
          <leafValues>
            -3.8636362552642822e-01 7.5757575035095215e-01</leafValues></_>
        <_>
          <internalNodes>
            0 -1 12 -3.6584252957254648e-03</internalNodes>
          <leafValues>
            -7.9091662168502808e-01 3.3146929740905762e-01</leafValues></_>
        <_>
          <internalNodes>
            0 -1 30 3.2815828453749418e-03</internalNodes>
          <leafValues>
            -4.3610760569572449e-01 7.2852438688278198e-01</leafValues></_>
        <_>
          <internalNodes>
            0 -1 44 8.7107520084828138e-04</internalNodes>
          <leafValues>
            -4.9656522274017334e-01 6.7363780736923218e-01</leafValues></_>
        <_>
          <internalNodes>
            0 -1 53 9.6479157218709588e-04</internalNodes>
          <leafValues>
            4.8330861330032349e-01 -7.5853127241134644e-01</leafValues></_></weakClassifiers></_>
    <!-- stage 5 -->
    <_>
      <maxWeakCount>4</maxWeakCount>
      <stageThreshold>-8.0563671886920929e-02</stageThreshold>
      <weakClassifiers>
        <_>
          <internalNodes>
            0 -1 25 1.0928745905403048e-04</internalNodes>
          <leafValues>
            -5.4545456171035767e-01 4.9090909957885742e-01</leafValues></_>
        <_>
          <internalNodes>
            0 -1 31 2.9431665316224098e-03</internalNodes>
          <leafValues>
            -4.2617473006248474e-01 6.7154425382614136e-01</leafValues></_>
        <_>
          <internalNodes>
            0 -1 15 -8.3831825759261847e-04</internalNodes>
          <leafValues>
            -8.2210761308670044e-01 3.4801834821701050e-01</leafValues></_>
        <_>
          <internalNodes>
            0 -1 41 -1.2521527241915464e-03</internalNodes>
          <leafValues>
            7.4850678443908691e-01 -4.2090940475463867e-01</leafValues></_></weakClassifiers></_>
    <!-- stage 6 -->
    <_>
      <maxWeakCount>5</maxWeakCount>
      <stageThreshold>-2.6745146512985229e-01</stageThreshold>
      <weakClassifiers>
        <_>
          <internalNodes>
            0 -1 8 -3.4992977976799011e-02</internalNodes>
          <leafValues>
            6.9696968793869019e-01 -3.6363637447357178e-01</leafValues></_>
        <_>
          <internalNodes>
            0 -1 78 -4.3203748646192253e-05</internalNodes>
          <leafValues>
            5.6651145219802856e-01 -4.2814806103706360e-01</leafValues></_>
        <_>
          <internalNodes>
            0 -1 11 -1.7527509480714798e-02</internalNodes>
          <leafValues>
            8.8763654232025146e-01 -3.8095182180404663e-01</leafValues></_>
        <_>
          <internalNodes>
            0 -1 84 -3.4000797313638031e-05</internalNodes>
          <leafValues>
            7.0096492767333984e-01 -5.5719524621963501e-01</leafValues></_>
        <_>
          <internalNodes>
            0 -1 3 2.4445354938507080e-05</internalNodes>
          <leafValues>
            -5.9278547763824463e-01 4.8434641957283020e-01</leafValues></_></weakClassifiers></_>
    <!-- stage 7 -->
    <_>
      <maxWeakCount>5</maxWeakCount>
      <stageThreshold>-1.7124214768409729e-01</stageThreshold>
      <weakClassifiers>
        <_>
          <internalNodes>
            0 -1 73 -8.4063448011875153e-03</internalNodes>
          <leafValues>
            5.8333331346511841e-01 -5.0684928894042969e-01</leafValues></_>
        <_>
          <internalNodes>
            0 -1 51 -1.0162197053432465e-02</internalNodes>
          <leafValues>
            6.8121135234832764e-01 -4.6699982881546021e-01</leafValues></_>
        <_>
          <internalNodes>
            0 -1 20 -4.5728529585176148e-06</internalNodes>
          <leafValues>
            5.7120454311370850e-01 -5.8366447687149048e-01</leafValues></_>
        <_>
          <internalNodes>
            0 -1 54 -2.6760427281260490e-03</internalNodes>
          <leafValues>
            6.7856585979461670e-01 -4.8201790452003479e-01</leafValues></_>
        <_>
          <internalNodes>
            0 -1 13 -1.7347124230582267e-04</internalNodes>
          <leafValues>
            7.8752827644348145e-01 -3.7010446190834045e-01</leafValues></_></weakClassifiers></_>
    <!-- stage 8 -->
    <_>
      <maxWeakCount>2</maxWeakCount>
      <stageThreshold>-8.8748216629028320e-02</stageThreshold>
      <weakClassifiers>
        <_>
          <internalNodes>
            0 -1 81 -6.4371823100373149e-05</internalNodes>
          <leafValues>
            3.2394367456436157e-01 -6.3999998569488525e-01</leafValues></_>
        <_>
          <internalNodes>
            0 -1 55 2.7259479975327849e-04</internalNodes>
          <leafValues>
            -4.1269189119338989e-01 7.4752032756805420e-01</leafValues></_></weakClassifiers></_>
    <!-- stage 9 -->
    <_>
      <maxWeakCount>5</maxWeakCount>
      <stageThreshold>-1.8778759241104126e-01</stageThreshold>
      <weakClassifiers>
        <_>
          <internalNodes>
            0 -1 39 -2.1008336625527591e-04</internalNodes>
          <leafValues>
            7.9310345649719238e-01 -3.4782609343528748e-01</leafValues></_>
        <_>
          <internalNodes>
            0 -1 5 -1.1333735892549157e-03</internalNodes>
          <leafValues>
            7.4881225824356079e-01 -3.0226817727088928e-01</leafValues></_>
        <_>
          <internalNodes>
            0 -1 77 1.0057775070890784e-03</internalNodes>
          <leafValues>
            3.6240082979202271e-01 -8.9753812551498413e-01</leafValues></_>
        <_>
          <internalNodes>
            0 -1 56 4.7918761265464127e-04</internalNodes>
          <leafValues>
            -4.0637496113777161e-01 7.5628054141998291e-01</leafValues></_>
        <_>
          <internalNodes>
            0 -1 17 9.9754915572702885e-04</internalNodes>
          <leafValues>
            5.0887477397918701e-01 -6.3464874029159546e-01</leafValues></_></weakClassifiers></_>
    <!-- stage 10 -->
    <_>
      <maxWeakCount>5</maxWeakCount>
      <stageThreshold>-4.5231080055236816e-01</stageThreshold>
      <weakClassifiers>
        <_>
          <internalNodes>
            0 -1 64 -7.6859246473759413e-04</internalNodes>
          <leafValues>
            7.0588237047195435e-01 -3.7931033968925476e-01</leafValues></_>
        <_>
          <internalNodes>
            0 -1 72 4.4451975554693490e-05</internalNodes>
          <leafValues>
            5.7124632596969604e-01 -4.3398413062095642e-01</leafValues></_>
        <_>
          <internalNodes>
            0 -1 33 1.9752271473407745e-03</internalNodes>
          <leafValues>
            -4.8376518487930298e-01 6.4284408092498779e-01</leafValues></_>
        <_>
          <internalNodes>
            0 -1 21 -3.9154541445896029e-04</internalNodes>
          <leafValues>
            -6.7870253324508667e-01 4.3559622764587402e-01</leafValues></_>
        <_>
          <internalNodes>
            0 -1 80 1.6377198335248977e-04</internalNodes>
          <leafValues>
            5.9634810686111450e-01 -5.9607785940170288e-01</leafValues></_></weakClassifiers></_>
    <!-- stage 11 -->
    <_>
      <maxWeakCount>5</maxWeakCount>
      <stageThreshold>-3.7866461277008057e-01</stageThreshold>
      <weakClassifiers>
        <_>
          <internalNodes>
            0 -1 76 6.7147170193493366e-04</internalNodes>
          <leafValues>
            -4.5205479860305786e-01 5.0000000000000000e-01</leafValues></_>
        <_>
          <internalNodes>
            0 -1 22 -3.1957597821019590e-04</internalNodes>
          <leafValues>
            -9.0710496902465820e-01 2.9069399833679199e-01</leafValues></_>
        <_>
          <internalNodes>
            0 -1 23 2.9065525159239769e-03</internalNodes>
          <leafValues>
            -3.5494825243949890e-01 8.9948582649230957e-01</leafValues></_>
        <_>
          <internalNodes>
            0 -1 36 -4.9032765673473477e-05</internalNodes>
          <leafValues>
            6.3711404800415039e-01 -4.4820895791053772e-01</leafValues></_>
        <_>
          <internalNodes>
            0 -1 19 4.6686973655596375e-04</internalNodes>
          <leafValues>
            -3.6620143055915833e-01 9.4998788833618164e-01</leafValues></_></weakClassifiers></_>
    <!-- stage 12 -->
    <_>
      <maxWeakCount>4</maxWeakCount>
      <stageThreshold>-4.8235660791397095e-01</stageThreshold>
      <weakClassifiers>
        <_>
          <internalNodes>
            0 -1 28 7.7596015762537718e-04</internalNodes>
          <leafValues>
            -3.4042552113533020e-01 8.5185188055038452e-01</leafValues></_>
        <_>
          <internalNodes>
            0 -1 68 1.4351934660226107e-03</internalNodes>
          <leafValues>
            -2.4253533780574799e-01 8.9197987318038940e-01</leafValues></_>
        <_>
          <internalNodes>
            0 -1 83 -1.0366963688284159e-03</internalNodes>
          <leafValues>
            7.2399556636810303e-01 -3.4838441014289856e-01</leafValues></_>
        <_>
          <internalNodes>
            0 -1 61 8.2658712926786393e-05</internalNodes>
          <leafValues>
            6.0896104574203491e-01 -6.2339127063751221e-01</leafValues></_></weakClassifiers></_>
    <!-- stage 13 -->
    <_>
      <maxWeakCount>4</maxWeakCount>
      <stageThreshold>7.4045017361640930e-02</stageThreshold>
      <weakClassifiers>
        <_>
          <internalNodes>
            0 -1 82 1.6814758419059217e-04</internalNodes>
          <leafValues>
            -3.9024388790130615e-01 5.8974361419677734e-01</leafValues></_>
        <_>
          <internalNodes>
            0 -1 70 2.9980698600411415e-03</internalNodes>
          <leafValues>
            3.8989710807800293e-01 -6.5024924278259277e-01</leafValues></_>
        <_>
          <internalNodes>
            0 -1 40 2.5092740543186665e-04</internalNodes>
          <leafValues>
            -4.9484801292419434e-01 5.5602300167083740e-01</leafValues></_>
        <_>
          <internalNodes>
            0 -1 18 -1.1670351959764957e-03</internalNodes>
          <leafValues>
            7.9610288143157959e-01 -4.1074767708778381e-01</leafValues></_></weakClassifiers></_>
    <!-- stage 14 -->
    <_>
      <maxWeakCount>4</maxWeakCount>
      <stageThreshold>-6.0679029673337936e-02</stageThreshold>
      <weakClassifiers>
        <_>
          <internalNodes>
            0 -1 1 -4.6745464205741882e-03</internalNodes>
          <leafValues>
            -5.3125000000000000e-01 4.3859648704528809e-01</leafValues></_>
        <_>
          <internalNodes>
            0 -1 48 -1.3899259502068162e-03</internalNodes>
          <leafValues>
            6.6129893064498901e-01 -4.5688527822494507e-01</leafValues></_>
        <_>
          <internalNodes>
            0 -1 74 2.2946316748857498e-03</internalNodes>
          <leafValues>
            -4.2031535506248474e-01 6.9755572080612183e-01</leafValues></_>
        <_>
          <internalNodes>
            0 -1 79 -2.5640130043029785e-03</internalNodes>
          <leafValues>
            -7.3994600772857666e-01 4.5104610919952393e-01</leafValues></_></weakClassifiers></_>
    <!-- stage 15 -->
    <_>
      <maxWeakCount>4</maxWeakCount>
      <stageThreshold>-3.1158947944641113e-01</stageThreshold>
      <weakClassifiers>
        <_>
          <internalNodes>
            0 -1 34 -4.4403132051229477e-04</internalNodes>
          <leafValues>
            -5.1515150070190430e-01 4.5454546809196472e-01</leafValues></_>
        <_>
          <internalNodes>
            0 -1 67 4.8467100714333355e-04</internalNodes>
          <leafValues>
            3.0639946460723877e-01 -7.7122753858566284e-01</leafValues></_>
        <_>
          <internalNodes>
            0 -1 24 1.4023992698639631e-03</internalNodes>
          <leafValues>
            4.3239653110504150e-01 -6.3121855258941650e-01</leafValues></_>
        <_>
          <internalNodes>
            0 -1 71 1.8161634216085076e-03</internalNodes>
          <leafValues>
            -4.2730394005775452e-01 7.5273925065994263e-01</leafValues></_></weakClassifiers></_>
    <!-- stage 16 -->
    <_>
      <maxWeakCount>4</maxWeakCount>
      <stageThreshold>-8.0106508731842041e-01</stageThreshold>
      <weakClassifiers>
        <_>
          <internalNodes>
            0 -1 49 9.4431859906762838e-04</internalNodes>
          <leafValues>
            -3.3333334326744080e-01 7.8571426868438721e-01</leafValues></_>
        <_>
          <internalNodes>
            0 -1 37 -3.8899833452887833e-04</internalNodes>
          <leafValues>
            -5.9830695390701294e-01 4.4243064522743225e-01</leafValues></_>
        <_>
          <internalNodes>
            0 -1 58 -4.4383494241628796e-05</internalNodes>
          <leafValues>
            -5.3311014175415039e-01 5.1994061470031738e-01</leafValues></_>
        <_>
          <internalNodes>
            0 -1 60 -9.2056952416896820e-03</internalNodes>
          <leafValues>
            8.3904272317886353e-01 -3.8936543464660645e-01</leafValues></_></weakClassifiers></_>
    <!-- stage 17 -->
    <_>
      <maxWeakCount>4</maxWeakCount>
      <stageThreshold>-1.1946820467710495e-01</stageThreshold>
      <weakClassifiers>
        <_>
          <internalNodes>
            0 -1 32 -3.3002123236656189e-03</internalNodes>
          <leafValues>
            6.4102566242218018e-01 -4.1463413834571838e-01</leafValues></_>
        <_>
          <internalNodes>
            0 -1 66 -3.6212354898452759e-02</internalNodes>
          <leafValues>
            -9.1570323705673218e-01 3.0669781565666199e-01</leafValues></_>
        <_>
          <internalNodes>
            0 -1 65 -1.0101901367306709e-02</internalNodes>
          <leafValues>
            9.3922722339630127e-01 -3.1822535395622253e-01</leafValues></_>
        <_>
          <internalNodes>
            0 -1 47 -1.8945969641208649e-03</internalNodes>
          <leafValues>
            -7.4896627664566040e-01 4.0639927983283997e-01</leafValues></_></weakClassifiers></_>
    <!-- stage 18 -->
    <_>
      <maxWeakCount>4</maxWeakCount>
      <stageThreshold>-1.7992995679378510e-01</stageThreshold>
      <weakClassifiers>
        <_>
          <internalNodes>
            0 -1 50 -1.0362634202465415e-03</internalNodes>
          <leafValues>
            6.7567569017410278e-01 -4.0476191043853760e-01</leafValues></_>
        <_>
          <internalNodes>
            0 -1 45 -1.4256967697292566e-03</internalNodes>
          <leafValues>
            -9.5164722204208374e-01 2.6539608836174011e-01</leafValues></_>
        <_>
          <internalNodes>
            0 -1 52 1.6964512178674340e-03</internalNodes>
          <leafValues>
            -3.3900994062423706e-01 8.6293256282806396e-01</leafValues></_>
        <_>
          <internalNodes>
            0 -1 59 1.4510553228319623e-05</internalNodes>
          <leafValues>
            4.3505150079727173e-01 -6.3760048151016235e-01</leafValues></_></weakClassifiers></_>
    <!-- stage 19 -->
    <_>
      <maxWeakCount>5</maxWeakCount>
      <stageThreshold>-3.4996852278709412e-01</stageThreshold>
      <weakClassifiers>
        <_>
          <internalNodes>
            0 -1 10 -1.7074277275241911e-04</internalNodes>
          <leafValues>
            5.4166668653488159e-01 -4.7945204377174377e-01</leafValues></_>
        <_>
          <internalNodes>
            0 -1 9 1.7657231539487839e-02</internalNodes>
          <leafValues>
            -3.0710744857788086e-01 8.2472485303878784e-01</leafValues></_>
        <_>
          <internalNodes>
            0 -1 57 2.2291319328360260e-04</internalNodes>
          <leafValues>
            -3.6948981881141663e-01 6.5201371908187866e-01</leafValues></_>
        <_>
          <internalNodes>
            0 -1 4 5.2702450193464756e-04</internalNodes>
          <leafValues>
            3.7747788429260254e-01 -8.7530344724655151e-01</leafValues></_>
        <_>
          <internalNodes>
            0 -1 27 1.8790995454764925e-05</internalNodes>
          <leafValues>
            4.7199979424476624e-01 -5.9251582622528076e-01</leafValues></_></weakClassifiers></_></stages>
  <features>
    <_>
      <rects>
        <_>
          0 20 44 16 -1.</_>
        <_>
          22 20 22 16 2.</_></rects>
      <tilted>0</tilted></_>
    <_>
      <rects>
        <_>
          0 21 44 24 -1.</_>
        <_>
          22 21 22 24 2.</_></rects>
      <tilted>0</tilted></_>
    <_>
      <rects>
        <_>
          0 33 42 2 -1.</_>
        <_>
          0 33 21 1 2.</_>
        <_>
          21 34 21 1 2.</_></rects>
      <tilted>0</tilted></_>
    <_>
      <rects>
        <_>
          0 44 4 3 -1.</_>
        <_>
          2 44 2 3 2.</_></rects>
      <tilted>0</tilted></_>
    <_>
      <rects>
        <_>
          1 3 4 4 -1.</_>
        <_>
          1 3 2 2 2.</_>
        <_>
          3 5 2 2 2.</_></rects>
      <tilted>0</tilted></_>
    <_>
      <rects>
        <_>
          1 17 28 3 -1.</_>
        <_>
          1 18 28 1 3.</_></rects>
      <tilted>0</tilted></_>
    <_>
      <rects>
        <_>
          1 25 38 4 -1.</_>
        <_>
          20 25 19 4 2.</_></rects>
      <tilted>0</tilted></_>
    <_>
      <rects>
        <_>
          2 13 30 10 -1.</_>
        <_>
          17 13 15 10 2.</_></rects>
      <tilted>0</tilted></_>
    <_>
      <rects>
        <_>
          2 15 22 28 -1.</_>
        <_>
          2 15 11 14 2.</_>
        <_>
          13 29 11 14 2.</_></rects>
      <tilted>0</tilted></_>
    <_>
      <rects>
        <_>
          2 25 7 21 -1.</_>
        <_>
          2 32 7 7 3.</_></rects>
      <tilted>0</tilted></_>
    <_>
      <rects>
        <_>
          2 29 4 3 -1.</_>
        <_>
          2 30 4 1 3.</_></rects>
      <tilted>0</tilted></_>
    <_>
      <rects>
        <_>
          3 1 22 16 -1.</_>
        <_>
          3 1 11 8 2.</_>
        <_>
          14 9 11 8 2.</_></rects>
      <tilted>0</tilted></_>
    <_>
      <rects>
        <_>
          3 8 6 12 -1.</_>
        <_>
          6 8 3 12 2.</_></rects>
      <tilted>0</tilted></_>
    <_>
      <rects>
        <_>
          3 24 6 2 -1.</_>
        <_>
          5 24 2 2 3.</_></rects>
      <tilted>0</tilted></_>
    <_>
      <rects>
        <_>
          3 36 20 2 -1.</_>
        <_>
          3 36 10 1 2.</_>
        <_>
          13 37 10 1 2.</_></rects>
      <tilted>0</tilted></_>
    <_>
      <rects>
        <_>
          4 1 14 1 -1.</_>
        <_>
          11 1 7 1 2.</_></rects>
      <tilted>0</tilted></_>
    <_>
      <rects>
        <_>
          4 2 36 4 -1.</_>
        <_>
          16 2 12 4 3.</_></rects>
      <tilted>0</tilted></_>
    <_>
      <rects>
        <_>
          4 5 20 4 -1.</_>
        <_>
          4 5 10 2 2.</_>
        <_>
          14 7 10 2 2.</_></rects>
      <tilted>0</tilted></_>
    <_>
      <rects>
        <_>
          4 17 24 2 -1.</_>
        <_>
          4 17 12 1 2.</_>
        <_>
          16 18 12 1 2.</_></rects>
      <tilted>0</tilted></_>
    <_>
      <rects>
        <_>
          5 25 2 6 -1.</_>
        <_>
          5 25 1 3 2.</_>
        <_>
          6 28 1 3 2.</_></rects>
      <tilted>0</tilted></_>
    <_>
      <rects>
        <_>
          5 35 3 2 -1.</_>
        <_>
          5 36 3 1 2.</_></rects>
      <tilted>0</tilted></_>
    <_>
      <rects>
        <_>
          5 39 3 6 -1.</_>
        <_>
          5 41 3 2 3.</_></rects>
      <tilted>0</tilted></_>
    <_>
      <rects>
        <_>
          5 46 4 2 -1.</_>
        <_>
          5 47 4 1 2.</_></rects>
      <tilted>0</tilted></_>
    <_>
      <rects>
        <_>
          6 31 22 4 -1.</_>
        <_>
          6 31 11 2 2.</_>
        <_>
          17 33 11 2 2.</_></rects>
      <tilted>0</tilted></_>
    <_>
      <rects>
        <_>
          6 38 14 6 -1.</_>
        <_>
          6 38 7 3 2.</_>
        <_>
          13 41 7 3 2.</_></rects>
      <tilted>0</tilted></_>
    <_>
      <rects>
        <_>
          7 10 3 36 -1.</_>
        <_>
          8 10 1 36 3.</_></rects>
      <tilted>0</tilted></_>
    <_>
      <rects>
        <_>
          7 18 29 3 -1.</_>
        <_>
          7 19 29 1 3.</_></rects>
      <tilted>0</tilted></_>
    <_>
      <rects>
        <_>
          7 21 2 14 -1.</_>
        <_>
          7 21 1 7 2.</_>
        <_>
          8 28 1 7 2.</_></rects>
      <tilted>0</tilted></_>
    <_>
      <rects>
        <_>
          8 20 15 2 -1.</_>
        <_>
          8 21 15 1 2.</_></rects>
      <tilted>0</tilted></_>
    <_>
      <rects>
        <_>
          11 23 2 2 -1.</_>
        <_>
          11 23 1 1 2.</_>
        <_>
          12 24 1 1 2.</_></rects>
      <tilted>0</tilted></_>
    <_>
      <rects>
        <_>
          12 7 3 24 -1.</_>
        <_>
          12 15 3 8 3.</_></rects>
      <tilted>0</tilted></_>
    <_>
      <rects>
        <_>
          12 9 10 6 -1.</_>
        <_>
          17 9 5 6 2.</_></rects>
      <tilted>0</tilted></_>
    <_>
      <rects>
        <_>
          12 33 15 7 -1.</_>
        <_>
          17 33 5 7 3.</_></rects>
      <tilted>0</tilted></_>
    <_>
      <rects>
        <_>
          13 23 4 24 -1.</_>
        <_>
          15 23 2 24 2.</_></rects>
      <tilted>0</tilted></_>
    <_>
      <rects>
        <_>
          13 38 14 6 -1.</_>
        <_>
          13 38 7 3 2.</_>
        <_>
          20 41 7 3 2.</_></rects>
      <tilted>0</tilted></_>
    <_>
      <rects>
        <_>
          14 17 3 1 -1.</_>
        <_>
          15 17 1 1 3.</_></rects>
      <tilted>0</tilted></_>
    <_>
      <rects>
        <_>
          14 39 3 1 -1.</_>
        <_>
          15 39 1 1 3.</_></rects>
      <tilted>0</tilted></_>
    <_>
      <rects>
        <_>
          15 14 3 22 -1.</_>
        <_>
          16 14 1 22 3.</_></rects>
      <tilted>0</tilted></_>
    <_>
      <rects>
        <_>
          15 24 6 2 -1.</_>
        <_>
          15 24 3 1 2.</_>
        <_>
          18 25 3 1 2.</_></rects>
      <tilted>0</tilted></_>
    <_>
      <rects>
        <_>
          15 25 1 3 -1.</_>
        <_>
          15 26 1 1 3.</_></rects>
      <tilted>0</tilted></_>
    <_>
      <rects>
        <_>
          15 34 1 14 -1.</_>
        <_>
          15 41 1 7 2.</_></rects>
      <tilted>0</tilted></_>
    <_>
      <rects>
        <_>
          16 30 5 6 -1.</_>
        <_>
          16 32 5 2 3.</_></rects>
      <tilted>0</tilted></_>
    <_>
      <rects>
        <_>
          17 17 3 12 -1.</_>
        <_>
          17 21 3 4 3.</_></rects>
      <tilted>0</tilted></_>
    <_>
      <rects>
        <_>
          17 23 1 18 -1.</_>
        <_>
          17 29 1 6 3.</_></rects>
      <tilted>0</tilted></_>
    <_>
      <rects>
        <_>
          17 35 14 3 -1.</_>
        <_>
          17 36 14 1 3.</_></rects>
      <tilted>0</tilted></_>
    <_>
      <rects>
        <_>
          18 8 4 4 -1.</_>
        <_>
          20 8 2 4 2.</_></rects>
      <tilted>0</tilted></_>
    <_>
      <rects>
        <_>
          19 32 3 12 -1.</_>
        <_>
          19 38 3 6 2.</_></rects>
      <tilted>0</tilted></_>
    <_>
      <rects>
        <_>
          20 2 8 9 -1.</_>
        <_>
          24 2 4 9 2.</_></rects>
      <tilted>0</tilted></_>
    <_>
      <rects>
        <_>
          20 23 11 6 -1.</_>
        <_>
          20 25 11 2 3.</_></rects>
      <tilted>0</tilted></_>
    <_>
      <rects>
        <_>
          20 31 7 3 -1.</_>
        <_>
          20 32 7 1 3.</_></rects>
      <tilted>0</tilted></_>
    <_>
      <rects>
        <_>
          21 19 18 1 -1.</_>
        <_>
          30 19 9 1 2.</_></rects>
      <tilted>0</tilted></_>
    <_>
      <rects>
        <_>
          22 9 16 18 -1.</_>
        <_>
          30 9 8 18 2.</_></rects>
      <tilted>0</tilted></_>
    <_>
      <rects>
        <_>
          23 37 2 6 -1.</_>
        <_>
          23 40 2 3 2.</_></rects>
      <tilted>0</tilted></_>
    <_>
      <rects>
        <_>
          23 43 24 3 -1.</_>
        <_>
          23 44 24 1 3.</_></rects>
      <tilted>0</tilted></_>
    <_>
      <rects>
        <_>
          24 24 9 18 -1.</_>
        <_>
          27 24 3 18 3.</_></rects>
      <tilted>0</tilted></_>
    <_>
      <rects>
        <_>
          24 25 3 2 -1.</_>
        <_>
          25 25 1 2 3.</_></rects>
      <tilted>0</tilted></_>
    <_>
      <rects>
        <_>
          24 25 3 4 -1.</_>
        <_>
          25 25 1 4 3.</_></rects>
      <tilted>0</tilted></_>
    <_>
      <rects>
        <_>
          24 35 2 3 -1.</_>
        <_>
          24 36 2 1 3.</_></rects>
      <tilted>0</tilted></_>
    <_>
      <rects>
        <_>
          24 43 9 1 -1.</_>
        <_>
          27 43 3 1 3.</_></rects>
      <tilted>0</tilted></_>
    <_>
      <rects>
        <_>
          26 4 6 2 -1.</_>
        <_>
          26 4 3 1 2.</_>
        <_>
          29 5 3 1 2.</_></rects>
      <tilted>0</tilted></_>
    <_>
      <rects>
        <_>
          26 5 5 15 -1.</_>
        <_>
          26 10 5 5 3.</_></rects>
      <tilted>0</tilted></_>
    <_>
      <rects>
        <_>
          27 4 12 12 -1.</_>
        <_>
          27 4 6 6 2.</_>
        <_>
          33 10 6 6 2.</_></rects>
      <tilted>0</tilted></_>
    <_>
      <rects>
        <_>
          27 16 6 6 -1.</_>
        <_>
          29 16 2 6 3.</_></rects>
      <tilted>0</tilted></_>
    <_>
      <rects>
        <_>
          27 16 5 6 -1.</_>
        <_>
          27 19 5 3 2.</_></rects>
      <tilted>0</tilted></_>
    <_>
      <rects>
        <_>
          27 21 6 3 -1.</_>
        <_>
          27 22 6 1 3.</_></rects>
      <tilted>0</tilted></_>
    <_>
      <rects>
        <_>
          28 7 9 22 -1.</_>
        <_>
          31 7 3 22 3.</_></rects>
      <tilted>0</tilted></_>
    <_>
      <rects>
        <_>
          30 22 8 26 -1.</_>
        <_>
          30 35 8 13 2.</_></rects>
      <tilted>0</tilted></_>
    <_>
      <rects>
        <_>
          31 0 8 2 -1.</_>
        <_>
          31 1 8 1 2.</_></rects>
      <tilted>0</tilted></_>
    <_>
      <rects>
        <_>
          32 7 2 24 -1.</_>
        <_>
          32 7 1 12 2.</_>
        <_>
          33 19 1 12 2.</_></rects>
      <tilted>0</tilted></_>
    <_>
      <rects>
        <_>
          33 5 3 10 -1.</_>
        <_>
          34 5 1 10 3.</_></rects>
      <tilted>0</tilted></_>
    <_>
      <rects>
        <_>
          34 2 10 17 -1.</_>
        <_>
          39 2 5 17 2.</_></rects>
      <tilted>0</tilted></_>
    <_>
      <rects>
        <_>
          34 30 9 5 -1.</_>
        <_>
          37 30 3 5 3.</_></rects>
      <tilted>0</tilted></_>
    <_>
      <rects>
        <_>
          34 40 10 6 -1.</_>
        <_>
          34 40 5 3 2.</_>
        <_>
          39 43 5 3 2.</_></rects>
      <tilted>0</tilted></_>
    <_>
      <rects>
        <_>
          35 3 8 45 -1.</_>
        <_>
          39 3 4 45 2.</_></rects>
      <tilted>0</tilted></_>
    <_>
      <rects>
        <_>
          36 11 3 14 -1.</_>
        <_>
          36 18 3 7 2.</_></rects>
      <tilted>0</tilted></_>
    <_>
      <rects>
        <_>
          36 22 12 4 -1.</_>
        <_>
          42 22 6 4 2.</_></rects>
      <tilted>0</tilted></_>
    <_>
      <rects>
        <_>
          37 2 3 36 -1.</_>
        <_>
          38 2 1 36 3.</_></rects>
      <tilted>0</tilted></_>
    <_>
      <rects>
        <_>
          37 16 9 3 -1.</_>
        <_>
          40 16 3 3 3.</_></rects>
      <tilted>0</tilted></_>
    <_>
      <rects>
        <_>
          38 8 3 3 -1.</_>
        <_>
          38 9 3 1 3.</_></rects>
      <tilted>0</tilted></_>
    <_>
      <rects>
        <_>
          38 13 9 11 -1.</_>
        <_>
          41 13 3 11 3.</_></rects>
      <tilted>0</tilted></_>
    <_>
      <rects>
        <_>
          42 3 4 4 -1.</_>
        <_>
          42 3 2 2 2.</_>
        <_>
          44 5 2 2 2.</_></rects>
      <tilted>0</tilted></_>
    <_>
      <rects>
        <_>
          43 20 2 12 -1.</_>
        <_>
          44 20 1 12 2.</_></rects>
      <tilted>0</tilted></_>
    <_>
      <rects>
        <_>
          43 22 1 3 -1.</_>
        <_>
          43 23 1 1 3.</_></rects>
      <tilted>0</tilted></_>
    <_>
      <rects>
        <_>
          44 32 1 12 -1.</_>
        <_>
          44 36 1 4 3.</_></rects>
      <tilted>0</tilted></_>
    <_>
      <rects>
        <_>
          46 19 1 4 -1.</_>
        <_>
          46 21 1 2 2.</_></rects>
      <tilted>0</tilted></_>
    <_>
      <rects>
        <_>
          47 39 1 3 -1.</_>
        <_>
          47 40 1 1 3.</_></rects>
      <tilted>0</tilted></_></features></cascade>
</opencv_storage>
